<?xml version="1.0"?>
<opencv_storage>
<cascade>
  <stageType>BOOST</stageType>
  <featureType>HAAR</featureType>
  <height>24</height>
  <width>24</width>
  <stageParams>
    <boostType>GAB</boostType>
    <minHitRate>9.9500000476837158e-01</minHitRate>
    <maxFalseAlarm>5.0000000000000000e-01</maxFalseAlarm>
    <weightTrimRate>9.4999998807907104e-01</weightTrimRate>
    <maxDepth>1</maxDepth>
    <maxWeakCount>100</maxWeakCount></stageParams>
  <featureParams>
    <maxCatCount>0</maxCatCount>
    <featSize>1</featSize>
    <mode>BASIC</mode></featureParams>
  <stageNum>9</stageNum>
  <stages>
    <!-- stage 0 -->
    <_>
      <maxWeakCount>3</maxWeakCount>
      <stageThreshold>-1.1329491138458252e+00</stageThreshold>
      <weakClassifiers>
        <_>
          <internalNodes>
            0 -1 24 5.2523769438266754e-02</internalNodes>
          <leafValues>
            -9.5271211862564087e-01 7.4647885560989380e-01</leafValues></_>
        <_>
          <internalNodes>
            0 -1 9 2.0538602024316788e-02</internalNodes>
          <leafValues>
            -9.0905433893203735e-01 6.5996438264846802e-01</leafValues></_>
        <_>
          <internalNodes>
            0 -1 18 2.2390821948647499e-02</internalNodes>
          <leafValues>
            -8.4020149707794189e-01 8.6731368303298950e-01</leafValues></_></weakClassifiers></_>
    <!-- stage 1 -->
    <_>
      <maxWeakCount>3</maxWeakCount>
      <stageThreshold>-1.1711825132369995e+00</stageThreshold>
      <weakClassifiers>
        <_>
          <internalNodes>
            0 -1 8 2.3460825905203819e-02</internalNodes>
          <leafValues>
            -9.4714879989624023e-01 6.9014084339141846e-01</leafValues></_>
        <_>
          <internalNodes>
            0 -1 4 -8.1763491034507751e-02</internalNodes>
          <leafValues>
            8.1650149822235107e-01 -8.6096137762069702e-01</leafValues></_>
        <_>
          <internalNodes>
            0 -1 19 -2.8430262580513954e-02</internalNodes>
          <leafValues>
            6.3692766427993774e-01 -9.2246228456497192e-01</leafValues></_></weakClassifiers></_>
    <!-- stage 2 -->
    <_>
      <maxWeakCount>3</maxWeakCount>
      <stageThreshold>-1.3835611343383789e+00</stageThreshold>
      <weakClassifiers>
        <_>
          <internalNodes>
            0 -1 7 6.7958481609821320e-02</internalNodes>
          <leafValues>
            -9.6521741151809692e-01 3.4000000357627869e-01</leafValues></_>
        <_>
          <internalNodes>
            0 -1 26 -9.6190404146909714e-03</internalNodes>
          <leafValues>
            4.3533280491828918e-01 -8.9057987928390503e-01</leafValues></_>
        <_>
          <internalNodes>
            0 -1 22 -1.2964760884642601e-02</internalNodes>
          <leafValues>
            4.7830596566200256e-01 -8.3298128843307495e-01</leafValues></_></weakClassifiers></_>
    <!-- stage 3 -->
    <_>
      <maxWeakCount>3</maxWeakCount>
      <stageThreshold>-1.4906541109085083e+00</stageThreshold>
      <weakClassifiers>
        <_>
          <internalNodes>
            0 -1 14 -2.0021639764308929e-02</internalNodes>
          <leafValues>
            5.8064514398574829e-01 -9.1758239269256592e-01</leafValues></_>
        <_>
          <internalNodes>
            0 -1 12 1.4450138434767723e-02</internalNodes>
          <leafValues>
            -8.6728370189666748e-01 4.4603297114372253e-01</leafValues></_>
        <_>
          <internalNodes>
            0 -1 23 3.8446739315986633e-02</internalNodes>
          <leafValues>
            -9.9348080158233643e-01 2.9421198368072510e-01</leafValues></_></weakClassifiers></_>
    <!-- stage 4 -->
    <_>
      <maxWeakCount>3</maxWeakCount>
      <stageThreshold>-1.3293167352676392e+00</stageThreshold>
      <weakClassifiers>
        <_>
          <internalNodes>
            0 -1 0 -2.3922428488731384e-02</internalNodes>
          <leafValues>
            6.7857140302658081e-01 -9.1280651092529297e-01</leafValues></_>
        <_>
          <internalNodes>
            0 -1 5 -3.2101623713970184e-02</internalNodes>
          <leafValues>
            5.1189172267913818e-01 -8.4501582384109497e-01</leafValues></_>
        <_>
          <internalNodes>
            0 -1 2 2.5926213711500168e-02</internalNodes>
          <leafValues>
            -9.2840200662612915e-01 5.0329113006591797e-01</leafValues></_></weakClassifiers></_>
    <!-- stage 5 -->
    <_>
      <maxWeakCount>4</maxWeakCount>
      <stageThreshold>-1.9586904048919678e+00</stageThreshold>
      <weakClassifiers>
        <_>
          <internalNodes>
            0 -1 17 -6.8319868296384811e-03</internalNodes>
          <leafValues>
            7.5510203838348389e-01 -9.0283399820327759e-01</leafValues></_>
        <_>
          <internalNodes>
            0 -1 1 -9.4365943223237991e-03</internalNodes>
          <leafValues>
            6.0926538705825806e-01 -7.7754831314086914e-01</leafValues></_>
        <_>
          <internalNodes>
            0 -1 27 6.7501766607165337e-03</internalNodes>
          <leafValues>
            -7.9352480173110962e-01 4.9605762958526611e-01</leafValues></_>
        <_>
          <internalNodes>
            0 -1 10 -3.6288045346736908e-02</internalNodes>
          <leafValues>
            5.4561430215835571e-01 -7.7436566352844238e-01</leafValues></_></weakClassifiers></_>
    <!-- stage 6 -->
    <_>
      <maxWeakCount>3</maxWeakCount>
      <stageThreshold>-1.5018255710601807e+00</stageThreshold>
      <weakClassifiers>
        <_>
          <internalNodes>
            0 -1 25 2.6136461645364761e-02</internalNodes>
          <leafValues>
            -9.1735535860061646e-01 5.3125000000000000e-01</leafValues></_>
        <_>
          <internalNodes>
            0 -1 3 -9.9085997790098190e-03</internalNodes>
          <leafValues>
            2.9267889261245728e-01 -8.5777121782302856e-01</leafValues></_>
        <_>
          <internalNodes>
            0 -1 6 8.8109029456973076e-03</internalNodes>
          <leafValues>
            -8.7714916467666626e-01 3.9266648888587952e-01</leafValues></_></weakClassifiers></_>
    <!-- stage 7 -->
    <_>
      <maxWeakCount>3</maxWeakCount>
      <stageThreshold>-1.3567745685577393e+00</stageThreshold>
      <weakClassifiers>
        <_>
          <internalNodes>
            0 -1 16 -1.2246150523424149e-02</internalNodes>
          <leafValues>
            8.9743590354919434e-01 -8.8814914226531982e-01</leafValues></_>
        <_>
          <internalNodes>
            0 -1 21 -1.0548234917223454e-02</internalNodes>
          <leafValues>
            4.8746192455291748e-01 -7.7844333648681641e-01</leafValues></_>
        <_>
          <internalNodes>
            0 -1 20 -1.8855296075344086e-02</internalNodes>
          <leafValues>
            3.0981793999671936e-01 -1.</leafValues></_></weakClassifiers></_>
    <!-- stage 8 -->
    <_>
      <maxWeakCount>3</maxWeakCount>
      <stageThreshold>-1.4539685249328613e+00</stageThreshold>
      <weakClassifiers>
        <_>
          <internalNodes>
            0 -1 13 -1.0864110291004181e-01</internalNodes>
          <leafValues>
            3.6000001430511475e-01 -9.2167830467224121e-01</leafValues></_>
        <_>
          <internalNodes>
            0 -1 15 4.9297739751636982e-03</internalNodes>
          <leafValues>
            -7.5980359315872192e-01 5.3365170955657959e-01</leafValues></_>
        <_>
          <internalNodes>
            0 -1 11 4.9621932208538055e-02</internalNodes>
          <leafValues>
            -9.9113470315933228e-01 2.2751344740390778e-01</leafValues></_></weakClassifiers></_></stages>
  <features>
    <_>
      <rects>
        <_>
          0 4 2 12 -1.</_>
        <_>
          1 4 1 12 2.</_></rects>
      <tilted>0</tilted></_>
    <_>
      <rects>
        <_>
          0 16 3 4 -1.</_>
        <_>
          1 16 1 4 3.</_></rects>
      <tilted>0</tilted></_>
    <_>
      <rects>
        <_>
          2 8 8 4 -1.</_>
        <_>
          6 8 4 4 2.</_></rects>
      <tilted>0</tilted></_>
    <_>
      <rects>
        <_>
          2 18 2 6 -1.</_>
        <_>
          2 20 2 2 3.</_></rects>
      <tilted>0</tilted></_>
    <_>
      <rects>
        <_>
          2 18 14 6 -1.</_>
        <_>
          2 20 14 2 3.</_></rects>
      <tilted>0</tilted></_>
    <_>
      <rects>
        <_>
          3 0 18 4 -1.</_>
        <_>
          3 2 18 2 2.</_></rects>
      <tilted>0</tilted></_>
    <_>
      <rects>
        <_>
          3 6 12 1 -1.</_>
        <_>
          9 6 6 1 2.</_></rects>
      <tilted>0</tilted></_>
    <_>
      <rects>
        <_>
          4 8 9 6 -1.</_>
        <_>
          7 8 3 6 3.</_></rects>
      <tilted>0</tilted></_>
    <_>
      <rects>
        <_>
          4 10 4 4 -1.</_>
        <_>
          6 10 2 4 2.</_></rects>
      <tilted>0</tilted></_>
    <_>
      <rects>
        <_>
          5 7 1 15 -1.</_>
        <_>
          5 12 1 5 3.</_></rects>
      <tilted>0</tilted></_>
    <_>
      <rects>
        <_>
          5 16 12 6 -1.</_>
        <_>
          5 19 12 3 2.</_></rects>
      <tilted>0</tilted></_>
    <_>
      <rects>
        <_>
          6 3 11 12 -1.</_>
        <_>
          6 9 11 6 2.</_></rects>
      <tilted>0</tilted></_>
    <_>
      <rects>
        <_>
          7 5 1 10 -1.</_>
        <_>
          7 10 1 5 2.</_></rects>
      <tilted>0</tilted></_>
    <_>
      <rects>
        <_>
          7 18 15 6 -1.</_>
        <_>
          7 20 15 2 3.</_></rects>
      <tilted>0</tilted></_>
    <_>
      <rects>
        <_>
          9 0 12 2 -1.</_>
        <_>
          9 1 12 1 2.</_></rects>
      <tilted>0</tilted></_>
    <_>
      <rects>
        <_>
          9 12 2 4 -1.</_>
        <_>
          9 12 1 2 2.</_>
        <_>
          10 14 1 2 2.</_></rects>
      <tilted>0</tilted></_>
    <_>
      <rects>
        <_>
          10 13 2 6 -1.</_>
        <_>
          10 13 1 3 2.</_>
        <_>
          11 16 1 3 2.</_></rects>
      <tilted>0</tilted></_>
    <_>
      <rects>
        <_>
          10 14 2 4 -1.</_>
        <_>
          10 14 1 2 2.</_>
        <_>
          11 16 1 2 2.</_></rects>
      <tilted>0</tilted></_>
    <_>
      <rects>
        <_>
          11 2 4 10 -1.</_>
        <_>
          11 2 2 5 2.</_>
        <_>
          13 7 2 5 2.</_></rects>
      <tilted>0</tilted></_>
    <_>
      <rects>
        <_>
          12 5 12 3 -1.</_>
        <_>
          16 5 4 3 3.</_></rects>
      <tilted>0</tilted></_>
    <_>
      <rects>
        <_>
          13 0 6 11 -1.</_>
        <_>
          16 0 3 11 2.</_></rects>
      <tilted>0</tilted></_>
    <_>
      <rects>
        <_>
          15 0 6 2 -1.</_>
        <_>
          15 1 6 1 2.</_></rects>
      <tilted>0</tilted></_>
    <_>
      <rects>
        <_>
          15 2 4 12 -1.</_>
        <_>
          15 2 2 6 2.</_>
        <_>
          17 8 2 6 2.</_></rects>
      <tilted>0</tilted></_>
    <_>
      <rects>
        <_>
          16 5 4 14 -1.</_>
        <_>
          16 12 4 7 2.</_></rects>
      <tilted>0</tilted></_>
    <_>
      <rects>
        <_>
          16 6 2 15 -1.</_>
        <_>
          16 11 2 5 3.</_></rects>
      <tilted>0</tilted></_>
    <_>
      <rects>
        <_>
          17 13 4 6 -1.</_>
        <_>
          17 13 2 3 2.</_>
        <_>
          19 16 2 3 2.</_></rects>
      <tilted>0</tilted></_>
    <_>
      <rects>
        <_>
          18 14 4 3 -1.</_>
        <_>
          20 14 2 3 2.</_></rects>
      <tilted>0</tilted></_>
    <_>
      <rects>
        <_>
          20 10 4 4 -1.</_>
        <_>
          22 10 2 4 2.</_></rects>
      <tilted>0</tilted></_></features></cascade>
</opencv_storage>
