<?xml version="1.0"?>
<opencv_storage>
<stage8>
  <maxWeakCount>5</maxWeakCount>
  <stageThreshold>-2.1602177619934082e+00</stageThreshold>
  <weakClassifiers>
    <_>
      <internalNodes>
        0 -1 49323 -2.6507053524255753e-02</internalNodes>
      <leafValues>
        9.2000001668930054e-01 -8.8496732711791992e-01</leafValues></_>
    <_>
      <internalNodes>
        0 -1 136495 -9.4278790056705475e-03</internalNodes>
      <leafValues>
        5.4705488681793213e-01 -8.1025391817092896e-01</leafValues></_>
    <_>
      <internalNodes>
        0 -1 1338 -1.2107782065868378e-02</internalNodes>
      <leafValues>
        6.1457437276840210e-01 -5.9692651033401489e-01</leafValues></_>
    <_>
      <internalNodes>
        0 -1 60162 -5.9149875305593014e-03</internalNodes>
      <leafValues>
        5.7180708646774292e-01 -6.5204674005508423e-01</leafValues></_>
    <_>
      <internalNodes>
        0 -1 17250 -1.0648377239704132e-02</internalNodes>
      <leafValues>
        8.5225385427474976e-01 -4.2752417922019958e-01</leafValues></_></weakClassifiers></stage8>
</opencv_storage>
