<?xml version="1.0"?>
<opencv_storage>
<cascade>
  <stageType>BOOST</stageType>
  <featureType>HAAR</featureType>
  <height>24</height>
  <width>24</width>
  <stageParams>
    <boostType>GAB</boostType>
    <minHitRate>9.9500000476837158e-01</minHitRate>
    <maxFalseAlarm>5.0000000000000000e-01</maxFalseAlarm>
    <weightTrimRate>9.4999998807907104e-01</weightTrimRate>
    <maxDepth>1</maxDepth>
    <maxWeakCount>100</maxWeakCount></stageParams>
  <featureParams>
    <maxCatCount>0</maxCatCount>
    <featSize>1</featSize>
    <mode>BASIC</mode></featureParams>
  <stageNum>11</stageNum>
  <stages>
    <!-- stage 0 -->
    <_>
      <maxWeakCount>3</maxWeakCount>
      <stageThreshold>-1.0986641645431519e+00</stageThreshold>
      <weakClassifiers>
        <_>
          <internalNodes>
            0 -1 18 1.4001750387251377e-02</internalNodes>
          <leafValues>
            -9.6825397014617920e-01 8.1481480598449707e-01</leafValues></_>
        <_>
          <internalNodes>
            0 -1 20 1.2841193005442619e-02</internalNodes>
          <leafValues>
            -9.3071699142456055e-01 8.2992798089981079e-01</leafValues></_>
        <_>
          <internalNodes>
            0 -1 27 -7.3026237078011036e-03</internalNodes>
          <leafValues>
            8.0030679702758789e-01 -8.8242965936660767e-01</leafValues></_></weakClassifiers></_>
    <!-- stage 1 -->
    <_>
      <maxWeakCount>3</maxWeakCount>
      <stageThreshold>-1.0070903301239014e+00</stageThreshold>
      <weakClassifiers>
        <_>
          <internalNodes>
            0 -1 5 6.0092941857874393e-03</internalNodes>
          <leafValues>
            -8.8999998569488525e-01 8.4105962514877319e-01</leafValues></_>
        <_>
          <internalNodes>
            0 -1 10 -1.8747348338365555e-02</internalNodes>
          <leafValues>
            8.5769790410995483e-01 -8.8036692142486572e-01</leafValues></_>
        <_>
          <internalNodes>
            0 -1 7 -7.2164679877460003e-03</internalNodes>
          <leafValues>
            7.6327657699584961e-01 -8.9057749509811401e-01</leafValues></_></weakClassifiers></_>
    <!-- stage 2 -->
    <_>
      <maxWeakCount>3</maxWeakCount>
      <stageThreshold>-1.0008319616317749e+00</stageThreshold>
      <weakClassifiers>
        <_>
          <internalNodes>
            0 -1 17 2.0528841763734818e-02</internalNodes>
          <leafValues>
            -9.0476191043853760e-01 7.4074071645736694e-01</leafValues></_>
        <_>
          <internalNodes>
            0 -1 15 4.9835883080959320e-02</internalNodes>
          <leafValues>
            -9.4280606508255005e-01 6.7578130960464478e-01</leafValues></_>
        <_>
          <internalNodes>
            0 -1 3 -3.1775496900081635e-02</internalNodes>
          <leafValues>
            8.5598939657211304e-01 -7.7185136079788208e-01</leafValues></_></weakClassifiers></_>
    <!-- stage 3 -->
    <_>
      <maxWeakCount>3</maxWeakCount>
      <stageThreshold>-9.9538534879684448e-01</stageThreshold>
      <weakClassifiers>
        <_>
          <internalNodes>
            0 -1 30 -4.4715679250657558e-03</internalNodes>
          <leafValues>
            7.5483870506286621e-01 -8.5714286565780640e-01</leafValues></_>
        <_>
          <internalNodes>
            0 -1 0 2.3445151746273041e-02</internalNodes>
          <leafValues>
            -8.8723558187484741e-01 7.1196937561035156e-01</leafValues></_>
        <_>
          <internalNodes>
            0 -1 21 -2.1648969501256943e-02</internalNodes>
          <leafValues>
            7.4899309873580933e-01 -8.0373072624206543e-01</leafValues></_></weakClassifiers></_>
    <!-- stage 4 -->
    <_>
      <maxWeakCount>2</maxWeakCount>
      <stageThreshold>-1.1896871775388718e-01</stageThreshold>
      <weakClassifiers>
        <_>
          <internalNodes>
            0 -1 33 6.1573768034577370e-03</internalNodes>
          <leafValues>
            -7.3333334922790527e-01 9.0476191043853760e-01</leafValues></_>
        <_>
          <internalNodes>
            0 -1 14 8.3541795611381531e-02</internalNodes>
          <leafValues>
            -8.9824193716049194e-01 6.1436462402343750e-01</leafValues></_></weakClassifiers></_>
    <!-- stage 5 -->
    <_>
      <maxWeakCount>3</maxWeakCount>
      <stageThreshold>-8.8095945119857788e-01</stageThreshold>
      <weakClassifiers>
        <_>
          <internalNodes>
            0 -1 2 3.6652389913797379e-02</internalNodes>
          <leafValues>
            -7.6958525180816650e-01 8.6567163467407227e-01</leafValues></_>
        <_>
          <internalNodes>
            0 -1 23 4.5031048357486725e-02</internalNodes>
          <leafValues>
            -8.1018656492233276e-01 7.6273941993713379e-01</leafValues></_>
        <_>
          <internalNodes>
            0 -1 6 2.1051326766610146e-02</internalNodes>
          <leafValues>
            -7.4286121129989624e-01 6.9881236553192139e-01</leafValues></_></weakClassifiers></_>
    <!-- stage 6 -->
    <_>
      <maxWeakCount>3</maxWeakCount>
      <stageThreshold>-1.0312294960021973e+00</stageThreshold>
      <weakClassifiers>
        <_>
          <internalNodes>
            0 -1 22 -5.9243100695312023e-03</internalNodes>
          <leafValues>
            7.3793101310729980e-01 -7.6699030399322510e-01</leafValues></_>
        <_>
          <internalNodes>
            0 -1 28 1.3048429042100906e-02</internalNodes>
          <leafValues>
            -8.4161543846130371e-01 6.2097734212875366e-01</leafValues></_>
        <_>
          <internalNodes>
            0 -1 9 1.4771124348044395e-02</internalNodes>
          <leafValues>
            -8.0672985315322876e-01 5.7737618684768677e-01</leafValues></_></weakClassifiers></_>
    <!-- stage 7 -->
    <_>
      <maxWeakCount>3</maxWeakCount>
      <stageThreshold>-8.2784092426300049e-01</stageThreshold>
      <weakClassifiers>
        <_>
          <internalNodes>
            0 -1 12 1.4333793893456459e-02</internalNodes>
          <leafValues>
            -7.7251183986663818e-01 8.0000001192092896e-01</leafValues></_>
        <_>
          <internalNodes>
            0 -1 25 -4.5124365715309978e-04</internalNodes>
          <leafValues>
            5.4723989963531494e-01 -9.0351718664169312e-01</leafValues></_>
        <_>
          <internalNodes>
            0 -1 34 -9.1646425426006317e-03</internalNodes>
          <leafValues>
            8.5921162366867065e-01 -6.0256898403167725e-01</leafValues></_></weakClassifiers></_>
    <!-- stage 8 -->
    <_>
      <maxWeakCount>3</maxWeakCount>
      <stageThreshold>-9.3678158521652222e-01</stageThreshold>
      <weakClassifiers>
        <_>
          <internalNodes>
            0 -1 29 -1.7010351642966270e-02</internalNodes>
          <leafValues>
            6.7105263471603394e-01 -7.6884424686431885e-01</leafValues></_>
        <_>
          <internalNodes>
            0 -1 1 -1.5333048067986965e-03</internalNodes>
          <leafValues>
            6.3451701402664185e-01 -7.5278514623641968e-01</leafValues></_>
        <_>
          <internalNodes>
            0 -1 24 -6.1718234792351723e-03</internalNodes>
          <leafValues>
            5.8484774827957153e-01 -7.9245030879974365e-01</leafValues></_></weakClassifiers></_>
    <!-- stage 9 -->
    <_>
      <maxWeakCount>4</maxWeakCount>
      <stageThreshold>-1.3652969598770142e+00</stageThreshold>
      <weakClassifiers>
        <_>
          <internalNodes>
            0 -1 4 -2.1416727453470230e-02</internalNodes>
          <leafValues>
            8.3606559038162231e-01 -6.6812229156494141e-01</leafValues></_>
        <_>
          <internalNodes>
            0 -1 13 -6.4773503690958023e-03</internalNodes>
          <leafValues>
            5.9284812211990356e-01 -7.6503962278366089e-01</leafValues></_>
        <_>
          <internalNodes>
            0 -1 31 -6.7212982103228569e-03</internalNodes>
          <leafValues>
            5.7527714967727661e-01 -7.3994594812393188e-01</leafValues></_>
        <_>
          <internalNodes>
            0 -1 11 2.7995141223073006e-02</internalNodes>
          <leafValues>
            -6.9637697935104370e-01 6.1779785156250000e-01</leafValues></_></weakClassifiers></_>
    <!-- stage 10 -->
    <_>
      <maxWeakCount>5</maxWeakCount>
      <stageThreshold>-1.3285045623779297e+00</stageThreshold>
      <weakClassifiers>
        <_>
          <internalNodes>
            0 -1 8 1.0676281526684761e-02</internalNodes>
          <leafValues>
            -6.7857140302658081e-01 7.9527556896209717e-01</leafValues></_>
        <_>
          <internalNodes>
            0 -1 26 3.6460272967815399e-02</internalNodes>
          <leafValues>
            -6.4815485477447510e-01 5.6212747097015381e-01</leafValues></_>
        <_>
          <internalNodes>
            0 -1 16 5.2836467511951923e-04</internalNodes>
          <leafValues>
            -9.3248969316482544e-01 3.7472501397132874e-01</leafValues></_>
        <_>
          <internalNodes>
            0 -1 32 8.5226411465555429e-04</internalNodes>
          <leafValues>
            -6.2655562162399292e-01 5.6552529335021973e-01</leafValues></_>
        <_>
          <internalNodes>
            0 -1 19 6.0515728546306491e-04</internalNodes>
          <leafValues>
            -9.7164213657379150e-01 3.4698471426963806e-01</leafValues></_></weakClassifiers></_></stages>
  <features>
    <_>
      <rects>
        <_>
          0 1 14 4 -1.</_>
        <_>
          0 1 7 2 2.</_>
        <_>
          7 3 7 2 2.</_></rects>
      <tilted>0</tilted></_>
    <_>
      <rects>
        <_>
          0 10 2 3 -1.</_>
        <_>
          1 10 1 3 2.</_></rects>
      <tilted>0</tilted></_>
    <_>
      <rects>
        <_>
          1 0 4 16 -1.</_>
        <_>
          1 0 2 8 2.</_>
        <_>
          3 8 2 8 2.</_></rects>
      <tilted>0</tilted></_>
    <_>
      <rects>
        <_>
          1 8 4 16 -1.</_>
        <_>
          1 8 2 8 2.</_>
        <_>
          3 16 2 8 2.</_></rects>
      <tilted>0</tilted></_>
    <_>
      <rects>
        <_>
          1 12 4 8 -1.</_>
        <_>
          1 12 2 4 2.</_>
        <_>
          3 16 2 4 2.</_></rects>
      <tilted>0</tilted></_>
    <_>
      <rects>
        <_>
          2 0 2 14 -1.</_>
        <_>
          2 0 1 7 2.</_>
        <_>
          3 7 1 7 2.</_></rects>
      <tilted>0</tilted></_>
    <_>
      <rects>
        <_>
          2 6 6 12 -1.</_>
        <_>
          4 6 2 12 3.</_></rects>
      <tilted>0</tilted></_>
    <_>
      <rects>
        <_>
          2 16 6 6 -1.</_>
        <_>
          2 16 3 3 2.</_>
        <_>
          5 19 3 3 2.</_></rects>
      <tilted>0</tilted></_>
    <_>
      <rects>
        <_>
          3 2 4 4 -1.</_>
        <_>
          3 2 2 2 2.</_>
        <_>
          5 4 2 2 2.</_></rects>
      <tilted>0</tilted></_>
    <_>
      <rects>
        <_>
          3 4 2 15 -1.</_>
        <_>
          3 9 2 5 3.</_></rects>
      <tilted>0</tilted></_>
    <_>
      <rects>
        <_>
          3 4 6 8 -1.</_>
        <_>
          3 4 3 4 2.</_>
        <_>
          6 8 3 4 2.</_></rects>
      <tilted>0</tilted></_>
    <_>
      <rects>
        <_>
          3 10 6 10 -1.</_>
        <_>
          3 10 3 5 2.</_>
        <_>
          6 15 3 5 2.</_></rects>
      <tilted>0</tilted></_>
    <_>
      <rects>
        <_>
          4 1 6 4 -1.</_>
        <_>
          4 1 3 2 2.</_>
        <_>
          7 3 3 2 2.</_></rects>
      <tilted>0</tilted></_>
    <_>
      <rects>
        <_>
          5 7 11 2 -1.</_>
        <_>
          5 8 11 1 2.</_></rects>
      <tilted>0</tilted></_>
    <_>
      <rects>
        <_>
          5 13 14 9 -1.</_>
        <_>
          5 16 14 3 3.</_></rects>
      <tilted>0</tilted></_>
    <_>
      <rects>
        <_>
          6 1 11 9 -1.</_>
        <_>
          6 4 11 3 3.</_></rects>
      <tilted>0</tilted></_>
    <_>
      <rects>
        <_>
          7 2 6 3 -1.</_>
        <_>
          9 2 2 3 3.</_></rects>
      <tilted>0</tilted></_>
    <_>
      <rects>
        <_>
          8 14 11 4 -1.</_>
        <_>
          8 16 11 2 2.</_></rects>
      <tilted>0</tilted></_>
    <_>
      <rects>
        <_>
          9 1 7 4 -1.</_>
        <_>
          9 3 7 2 2.</_></rects>
      <tilted>0</tilted></_>
    <_>
      <rects>
        <_>
          9 2 6 3 -1.</_>
        <_>
          11 2 2 3 3.</_></rects>
      <tilted>0</tilted></_>
    <_>
      <rects>
        <_>
          9 14 2 9 -1.</_>
        <_>
          9 17 2 3 3.</_></rects>
      <tilted>0</tilted></_>
    <_>
      <rects>
        <_>
          9 18 4 6 -1.</_>
        <_>
          9 21 4 3 2.</_></rects>
      <tilted>0</tilted></_>
    <_>
      <rects>
        <_>
          10 1 8 2 -1.</_>
        <_>
          10 1 4 1 2.</_>
        <_>
          14 2 4 1 2.</_></rects>
      <tilted>0</tilted></_>
    <_>
      <rects>
        <_>
          11 1 7 9 -1.</_>
        <_>
          11 4 7 3 3.</_></rects>
      <tilted>0</tilted></_>
    <_>
      <rects>
        <_>
          11 19 8 2 -1.</_>
        <_>
          15 19 4 2 2.</_></rects>
      <tilted>0</tilted></_>
    <_>
      <rects>
        <_>
          14 2 2 3 -1.</_>
        <_>
          15 2 1 3 2.</_></rects>
      <tilted>0</tilted></_>
    <_>
      <rects>
        <_>
          14 14 4 9 -1.</_>
        <_>
          14 17 4 3 3.</_></rects>
      <tilted>0</tilted></_>
    <_>
      <rects>
        <_>
          15 2 6 4 -1.</_>
        <_>
          15 2 3 2 2.</_>
        <_>
          18 4 3 2 2.</_></rects>
      <tilted>0</tilted></_>
    <_>
      <rects>
        <_>
          15 4 6 6 -1.</_>
        <_>
          15 4 3 3 2.</_>
        <_>
          18 7 3 3 2.</_></rects>
      <tilted>0</tilted></_>
    <_>
      <rects>
        <_>
          15 14 6 6 -1.</_>
        <_>
          15 14 3 3 2.</_>
        <_>
          18 17 3 3 2.</_></rects>
      <tilted>0</tilted></_>
    <_>
      <rects>
        <_>
          18 6 4 3 -1.</_>
        <_>
          20 6 2 3 2.</_></rects>
      <tilted>0</tilted></_>
    <_>
      <rects>
        <_>
          18 14 4 4 -1.</_>
        <_>
          20 14 2 4 2.</_></rects>
      <tilted>0</tilted></_>
    <_>
      <rects>
        <_>
          20 4 2 2 -1.</_>
        <_>
          21 4 1 2 2.</_></rects>
      <tilted>0</tilted></_>
    <_>
      <rects>
        <_>
          20 13 2 8 -1.</_>
        <_>
          20 13 1 4 2.</_>
        <_>
          21 17 1 4 2.</_></rects>
      <tilted>0</tilted></_>
    <_>
      <rects>
        <_>
          21 10 3 5 -1.</_>
        <_>
          22 10 1 5 3.</_></rects>
      <tilted>0</tilted></_></features></cascade>
</opencv_storage>
