<?xml version="1.0"?>
<opencv_storage>
<stage8>
  <maxWeakCount>6</maxWeakCount>
  <stageThreshold>-1.9034857749938965e+00</stageThreshold>
  <weakClassifiers>
    <_>
      <internalNodes>
        0 -1 31658 3.0278531834483147e-02</internalNodes>
      <leafValues>
        -8.8402062654495239e-01 2.8571429848670959e-01</leafValues></_>
    <_>
      <internalNodes>
        0 -1 1242 -4.2511954903602600e-02</internalNodes>
      <leafValues>
        -2.9405748471617699e-02 -7.7038031816482544e-01</leafValues></_>
    <_>
      <internalNodes>
        0 -1 143213 -1.4480011304840446e-03</internalNodes>
      <leafValues>
        -9.0358722209930420e-01 8.0037638545036316e-02</leafValues></_>
    <_>
      <internalNodes>
        0 -1 37963 -4.3942948104813695e-04</internalNodes>
      <leafValues>
        -7.6668560504913330e-01 1.9766989350318909e-01</leafValues></_>
    <_>
      <internalNodes>
        0 -1 134170 -1.6803741455078125e-03</internalNodes>
      <leafValues>
        1.7714239656925201e-01 -7.1442049741744995e-01</leafValues></_>
    <_>
      <internalNodes>
        0 -1 25808 2.0021537784487009e-04</internalNodes>
      <leafValues>
        1.8762810528278351e-01 -8.4034723043441772e-01</leafValues></_></weakClassifiers></stage8>
</opencv_storage>
