<?xml version="1.0"?>
<opencv_storage>
<stage6>
  <maxWeakCount>6</maxWeakCount>
  <stageThreshold>-1.8645517826080322e+00</stageThreshold>
  <weakClassifiers>
    <_>
      <internalNodes>
        0 -1 153042 3.1079467386007309e-02</internalNodes>
      <leafValues>
        -8.7994891405105591e-01 1.</leafValues></_>
    <_>
      <internalNodes>
        0 -1 8205 -1.2197565287351608e-02</internalNodes>
      <leafValues>
        3.4890822134912014e-03 -7.6896715164184570e-01</leafValues></_>
    <_>
      <internalNodes>
        0 -1 35595 3.3990819007158279e-02</internalNodes>
      <leafValues>
        -3.1490349769592285e-01 6.7753726243972778e-01</leafValues></_>
    <_>
      <internalNodes>
        0 -1 48630 -1.8719362094998360e-02</internalNodes>
      <leafValues>
        3.7021911144256592e-01 -4.7659078240394592e-01</leafValues></_>
    <_>
      <internalNodes>
        0 -1 91915 2.3203499149531126e-03</internalNodes>
      <leafValues>
        1.8110786378383636e-01 -8.8799339532852173e-01</leafValues></_>
    <_>
      <internalNodes>
        0 -1 151662 -1.6651772893965244e-03</internalNodes>
      <leafValues>
        3.9475068449974060e-01 -4.1276821494102478e-01</leafValues></_></weakClassifiers></stage6>
</opencv_storage>
